svm_type epsilon_svr
kernel_type rbf
gamma 2
nr_class 2
total_sv 10
rho -26.2671
SV
-1.518562986464953 1:1 
-5.544476094001471 1:2 
8 1:3 
4.967472981570312 1:4 
8 1:5 
1.881250588058951 1:6 
-3.95189659160556 1:7 
2.45061422396538 1:8 
-8 1:9 
-6.284402121522658 1:10 
