svm_type epsilon_svr
kernel_type rbf
gamma 16
nr_class 2
total_sv 39
rho -39091.7
SV
1024 1:-1 
1024 1:-0.947368 
1024 1:-0.894737 
1024 1:-0.842105 
1024 1:-0.789474 
-901.8356289177353 1:-0.736842 
1024 1:-0.684211 
-1024 1:-0.631579 
-1024 1:-0.578947 
1024 1:-0.526316 
-1024 1:-0.473684 
-1024 1:-0.421053 
-1024 1:-0.368421 
-1024 1:-0.315789 
-1024 1:-0.263158 
-1024 1:-0.210526 
-177.5952100821652 1:-0.157895 
1024 1:-0.105263 
-1024 1:-0.0526316 
-1024 
-1024 1:0.0526316 
-1024 1:0.105263 
-1024 1:0.157895 
-1024 1:0.210526 
-1024 1:0.263158 
190.8241680396213 1:0.315789 
1024 1:0.368421 
1024 1:0.421053 
1024 1:0.473684 
1024 1:0.526316 
1024 1:0.578947 
1024 1:0.631579 
1024 1:0.684211 
1024 1:0.736842 
1024 1:0.789474 
1024 1:0.842105 
-1024 1:0.894737 
-135.3933290397209 1:0.947368 
-1024 1:1 
